-1.043091267347335815e-01 1.338820904493331909e-01 1.824643462896347046e-01 1.861489005386829376e-02 2.393094748258590698e-01 1.117932572960853577e-01 -2.353162020444869995e-01 -5.761939287185668945e-01 -1.625372171401977539e-01 -8.458280563354492188e-02 -1.958681344985961914e-01 -3.464036881923675537e-01 2.762801051139831543e-01 6.272454261779785156e-01 3.908105194568634033e-01 4.824539124965667725e-01 8.182889819145202637e-01 4.955959618091583252e-01 -2.312310785055160522e-01 -5.224146246910095215e-01 -3.859731554985046387e-01 -2.960838377475738525e-01 -1.561856269836425781e-01 -1.140886843204498291e-01 -9.237093478441238403e-02 7.725518196821212769e-02 -5.009455233812332153e-02 -3.397829085588455200e-02 -2.384802401065826416e-01 -2.665446996688842773e-01 -1.809998899698257446e-01 -3.544134497642517090e-01 -1.734855920076370239e-01 3.993104100227355957e-01 7.952244877815246582e-01 4.850078225135803223e-01 2.528261244297027588e-01 4.892419278621673584e-01 3.885063529014587402e-01 2.564271688461303711e-01 5.078933835029602051e-01 3.024390041828155518e-01 -2.559266984462738037e-01 -3.729942142963409424e-01 -2.412672787904739380e-01 2.369018197059631348e-01 9.117925912141799927e-02 -7.176353782415390015e-02 -2.770167589187622070e-01 3.236430510878562927e-02 5.232172831892967224e-02 -6.746368408203125000e-01 -4.899156987667083740e-01 -3.650689423084259033e-01 8.542082458734512329e-02 4.429262876510620117e-02 3.563239797949790955e-02 1.650441437959671021e-01 -3.089453577995300293e-01 -2.705772519111633301e-01 9.709087759256362915e-02 6.256012618541717529e-02 2.920359075069427490e-01 1.333546191453933716e-01 9.487879276275634766e-02 4.335757195949554443e-01 -6.893788278102874756e-02 3.140009045600891113e-01 3.971831500530242920e-01 1.708234697580337524e-01 1.469927579164505005e-01 -1.984115689992904663e-01 -4.531640931963920593e-02 -1.195511445403099060e-01 7.001220434904098511e-02 -2.213472425937652588e-01 -1.588086187839508057e-01 -8.566556125879287720e-02 -3.551071882247924805e-01 -7.847653329372406006e-02 -4.475149884819984436e-02 -8.087400346994400024e-03 1.536552011966705322e-01 -3.493665950372815132e-03 2.057470083236694336e-01 5.651699304580688477e-01 3.878822028636932373e-01 -2.420181967318058014e-02 -5.139581486582756042e-02 -2.762904763221740723e-01 -2.909323573112487793e-01 -3.239310681819915771e-01 2.500783279538154602e-02 -1.980421841144561768e-01 -1.414633244276046753e-01 -3.920809924602508545e-02 1.084532961249351501e-01 -1.328762024641036987e-01 -8.941713720560073853e-02 -1.680902689695358276e-01 3.543778136372566223e-02 2.404317557811737061e-01 -3.295888602733612061e-01 -3.580032885074615479e-01 -8.967170864343643188e-02 4.358393326401710510e-02 1.807685382664203644e-02 -1.434184163808822632e-01 -5.591170862317085266e-02 9.582793712615966797e-02 -2.696821279823780060e-02 8.627327531576156616e-02 2.528465688228607178e-01 -1.644806116819381714e-01 -1.846193522214889526e-01 -6.965157110244035721e-03 9.178180992603302002e-02 3.660446731373667717e-03 -2.662187814712524414e-01 -2.749245427548885345e-02 -6.110694631934165955e-02 -1.363065466284751892e-02 3.736934065818786621e-02 2.011713199317455292e-02 6.626541167497634888e-02 -1.293564438819885254e-01 1.781676560640335083e-01 -9.808544814586639404e-02 1.860480010509490967e-02 -5.211603362113237381e-03 -8.889879286289215088e-02 -1.585566699504852295e-01 -1.259836927056312561e-02 -8.695286512374877930e-02 -1.024493724107742310e-01 7.468384504318237305e-02 -1.425906922668218613e-02 2.251055240631103516e-01 -3.586400672793388367e-02 -1.973868608474731445e-01 4.344494640827178955e-02 1.280695945024490356e-01 -7.386235892772674561e-02 -5.631881579756736755e-02 1.496921926736831665e-01 6.893433630466461182e-02 -1.068660020828247070e-01 1.136636361479759216e-02 1.073197349905967712e-01 7.090599089860916138e-02 -1.518689393997192383e-01 2.059674859046936035e-01 1.594476550817489624e-01 9.518916904926300049e-02 9.427586570382118225e-03 -1.678008586168289185e-01 1.696224808692932129e-01 -5.159636586904525757e-02 -1.171117834746837616e-02 -1.293654441833496094e-01 1.748058199882507324e-02 -1.100586578249931335e-01 2.583303451538085938e-01 3.336898684501647949e-01 1.458683162927627563e-01 2.021625488996505737e-01 1.257377713918685913e-01 -2.642779052257537842e-01 -1.062143146991729736e-01 -3.376162350177764893e-01 -1.217640563845634460e-01 -2.954987585544586182e-01 -9.978197515010833740e-02 -2.498792484402656555e-03 9.599072486162185669e-02 3.787389099597930908e-01 6.112152338027954102e-01 1.428696960210800171e-01 1.169890016317367554e-01 2.422718703746795654e-01 -1.533596068620681763e-01 -2.147351205348968506e-01 -1.749050319194793701e-01 -6.548000872135162354e-02 1.656479686498641968e-01 1.118227615952491760e-01 -8.230300992727279663e-02 2.225277423858642578e-01 -1.430878490209579468e-01 -4.370861127972602844e-02 -3.344131112098693848e-01 -9.838015586137771606e-02 -1.784699112176895142e-01 5.034533515572547913e-02 1.690143793821334839e-01 4.833004176616668701e-01 7.391867637634277344e-01 1.361631751060485840e-01 1.550373136997222900e-01 1.782936751842498779e-01 4.602938145399093628e-02 5.888419970870018005e-02 2.838269062340259552e-02 -7.020905613899230957e-02 -5.177270174026489258e-01 -6.669622659683227539e-01 -2.399093806743621826e-01 1.860750168561935425e-01 6.046207249164581299e-02 5.573560670018196106e-02 -1.887670010328292847e-01 -8.404819667339324951e-02 2.572763562202453613e-01 -4.315950870513916016e-01 -4.291843175888061523e-01 -1.214850097894668579e-01 1.410102248191833496e-01 -1.364032328128814697e-01 -1.001158729195594788e-01 3.566703200340270996e-01 -3.840040266513824463e-01 -3.695669770240783691e-01 3.609406650066375732e-01 -2.509164214134216309e-01 6.749579310417175293e-02 -2.860878705978393555e-01 1.293914318084716797e-01 5.236867070198059082e-01 -3.580922484397888184e-01 9.450451284646987915e-02 5.069642663002014160e-01 -4.086276292800903320e-01 -1.194261480122804642e-02 -1.654388196766376495e-02 5.545954033732414246e-02 1.060725226998329163e-01 1.930091530084609985e-01 -1.885825395584106445e-01 -5.274471361190080643e-03 3.132160007953643799e-01 -4.906889051198959351e-03 2.912305295467376709e-01 1.364903301000595093e-01 -1.361726671457290649e-01 -9.612971544265747070e-02 -1.047789752483367920e-01 -2.263932973146438599e-01 4.446662664413452148e-01 1.411469280719757080e-01 -3.279047906398773193e-01 1.874641180038452148e-01 -3.992421180009841919e-02 -1.742029935121536255e-01 -1.213128492236137390e-01 -2.377644367516040802e-02 -2.408778220415115356e-01 -8.325455337762832642e-02 -2.819221019744873047e-01 7.004924863576889038e-02 -3.803398907184600830e-01 -3.344013988971710205e-01 1.428585648536682129e-01 7.378920912742614746e-02 2.543894648551940918e-01 -1.154068037867546082e-01 -1.237510517239570618e-01 1.885640770196914673e-01 5.520921573042869568e-02 8.986932784318923950e-02 2.637277729809284210e-02 -2.694768086075782776e-02 1.679272577166557312e-02 -4.650608450174331665e-02 1.471298038959503174e-01 1.385954394936561584e-02 -1.065001934766769409e-01 -1.044062823057174683e-01 2.740070223808288574e-02 -6.334153562784194946e-02 -1.326917707920074463e-01 7.297201082110404968e-03 1.918869316577911377e-01 -5.961176753044128418e-02 -7.216977328062057495e-02 6.330469250679016113e-02 -2.768566012382507324e-01 -1.993603110313415527e-01 1.543750613927841187e-01 2.601440809667110443e-02 -2.405216544866561890e-02 1.689973920583724976e-01 1.749713122844696045e-01 1.492533683776855469e-01 3.051203787326812744e-01 1.280074268579483032e-01 1.005361080169677734e-01 8.117725700139999390e-02 -2.373629808425903320e-01 -2.094001024961471558e-01 2.000228734686970711e-03 -1.125802472233772278e-01 -1.533464044332504272e-01 -8.595500886440277100e-02 3.353456407785415649e-02 9.134124219417572021e-02 -1.764785647392272949e-01 -9.672988206148147583e-03 -1.859824173152446747e-03 -1.249355971813201904e-01 6.630922853946685791e-02 -3.732743859291076660e-02 -1.945041269063949585e-01 -2.484791278839111328e-01 -2.226513922214508057e-01 -2.230804562568664551e-01 2.758334577083587646e-01 -3.954346105456352234e-02 1.036334037780761719e-01 -2.107345499098300934e-02 1.426467001438140869e-01 3.040047287940979004e-01 1.491793096065521240e-01 -4.304310306906700134e-02 4.666702821850776672e-02 1.926443725824356079e-01 -4.041946679353713989e-02 -1.002174243330955505e-01 8.405091613531112671e-02 1.373009085655212402e-01 -3.495194017887115479e-01 2.359561324119567871e-01 -7.156771421432495117e-02 -3.723648786544799805e-01 1.299437601119279861e-02 4.272453486919403076e-02 3.828063309192657471e-01 -2.648825049400329590e-01 -2.061647176742553711e-01 4.395757913589477539e-01 -1.663900762796401978e-01 4.482321813702583313e-02 2.516041398048400879e-01 9.875568002462387085e-02 -1.503129303455352783e-01 2.115841060876846313e-01 -7.228433340787887573e-02 -1.239697411656379700e-01 7.491406053304672241e-02 -6.880750507116317749e-02 -1.128407984651857987e-05 1.166717335581779480e-01 -2.156913131475448608e-01 2.013054043054580688e-01 1.373907774686813354e-01 -3.284107744693756104e-01 3.345875069499015808e-02 2.946638269349932671e-03 -3.915828764438629150e-01 2.575775384902954102e-01 3.912125229835510254e-01 6.115892156958580017e-02 -1.576132327318191528e-01 -2.485435605049133301e-01 -3.049550345167517662e-03 -3.693193942308425903e-02 -8.680751174688339233e-02 -1.898462474346160889e-01 -9.044113010168075562e-02 -1.058347001671791077e-01 -4.501825943589210510e-02 -3.007569164037704468e-02 2.664709687232971191e-01 2.180943638086318970e-02 -2.465777546167373657e-01 2.996476888656616211e-01 2.013493031263351440e-01 -2.764636278152465820e-02 1.101903393864631653e-01
