-7.676003128290176392e-02 -4.036348313093185425e-02 3.022764623165130615e-01 -5.449405405670404434e-03 2.247700840234756470e-01 9.059099107980728149e-02 1.571661233901977539e-01 -1.574602574110031128e-01 -6.404218077659606934e-02 7.510944455862045288e-02 -9.035842865705490112e-02 -3.942575454711914062e-01 -5.194521322846412659e-02 -6.485159695148468018e-02 -7.181098312139511108e-02 1.686357557773590088e-01 -3.456812202930450439e-01 7.226970512419939041e-03 2.014818936586380005e-01 9.560577571392059326e-02 -2.554830312728881836e-01 1.241972204297780991e-02 -1.828350871801376343e-01 -4.104792475700378418e-01 -4.556996226310729980e-01 5.835162475705146790e-02 -1.244875490665435791e-01 7.226209342479705811e-02 -1.051089316606521606e-01 5.034279823303222656e-02 -1.072128713130950928e-01 1.308118086308240891e-02 -1.841182261705398560e-01 -1.432406157255172729e-01 1.554324924945831299e-01 1.607781499624252319e-01 -1.115088760852813721e-01 -2.774069309234619141e-01 4.738090634346008301e-01 -1.212548911571502686e-01 -9.811776876449584961e-02 -2.377650141716003418e-01 2.969642877578735352e-01 -3.603933155536651611e-01 -3.238670527935028076e-01 1.532838344573974609e-01 2.284978926181793213e-01 -5.584600940346717834e-02 -1.632032096385955811e-01 3.015602231025695801e-01 -3.454021811485290527e-01 -1.176782697439193726e-02 -9.238054975867271423e-03 5.765428766608238220e-02 -2.196045666933059692e-01 -1.091604456305503845e-01 -1.521966326981782913e-02 -1.683328896760940552e-01 -1.905855089426040649e-01 -8.973464369773864746e-02 2.545791566371917725e-01 7.290584594011306763e-02 -7.285954803228378296e-02 3.293637335300445557e-01 2.183753810822963715e-02 -3.066499717533588409e-02 3.267704322934150696e-02 -2.585696280002593994e-01 -2.647767364978790283e-01 -3.883579373359680176e-02 -1.833555698394775391e-01 4.200797080993652344e-01 5.557048693299293518e-02 -2.576084434986114502e-01 -1.387766301631927490e-01 -1.873621344566345215e-01 -3.045083880424499512e-01 -1.743898987770080566e-01 1.502870023250579834e-01 1.281387060880661011e-01 -7.678186893463134766e-02 -1.397562026977539062e-01 2.495430409908294678e-01 -2.670105695724487305e-01 6.687618792057037354e-02 4.013369083404541016e-01 -4.606881737709045410e-02 -7.567288726568222046e-02 -7.050792872905731201e-02 2.616514079272747040e-02 -1.665312051773071289e-01 1.049296036362648010e-01 -1.614208668470382690e-01 -2.078031450510025024e-01 7.778030633926391602e-02 1.676988452672958374e-01 -1.977942883968353271e-01 -2.011131942272186279e-01 2.011097222566604614e-01 5.459879338741302490e-02 1.074701175093650818e-01 -5.665041804313659668e-01 -1.219092383980751038e-01 1.280943453311920166e-01 3.267090916633605957e-01 -2.035634368658065796e-01 -3.820129632949829102e-01 -3.315337002277374268e-02 1.233683228492736816e-01 -1.982755661010742188e-01 5.814279913902282715e-01 3.048442304134368896e-01 6.113600730895996094e-02 -9.674121439456939697e-02 -7.712928950786590576e-02 -2.912639081478118896e-01 1.173621788620948792e-01 -5.060909688472747803e-02 1.465532481670379639e-01 8.572510443627834320e-03 -7.251831144094467163e-02 1.509599834680557251e-01 -2.215278595685958862e-01 -1.894326657056808472e-01 -4.436414688825607300e-02 -2.958588600158691406e-01 2.091281861066818237e-01 -2.495696097612380981e-01
