-2.182046651840209961e+00 -3.007523536682128906e+00 -9.270450472831726074e-02 1.648039221763610840e-01 -7.898478507995605469e-01 -3.928336799144744873e-01 1.346675902605056763e-01 -1.289490818977355957e+00 8.099658042192459106e-02 -1.781890153884887695e+00 9.993187785148620605e-01 -5.550721287727355957e-01 5.657832026481628418e-01 -2.203723192214965820e+00 1.161067843437194824e+00 -1.733414530754089355e+00 8.302046656608581543e-01 -2.707406520843505859e+00 -2.249704122543334961e+00 -8.019144535064697266e-01 8.893276453018188477e-01 -1.496815383434295654e-01 -6.097331643104553223e-01 6.248395442962646484e-01 7.550098896026611328e-01 9.249615669250488281e-01 -5.525328516960144043e-01 1.715535521507263184e-01 -1.585790157318115234e+00 8.258032202720642090e-01 1.211168408393859863e+00 -1.142691820859909058e-01 -1.204187750816345215e+00 7.469922900199890137e-01 -1.139181375503540039e+00 4.129834175109863281e-01 7.413558363914489746e-01 -3.194489479064941406e-01 -5.194931626319885254e-01 -6.353121399879455566e-01 8.010826706886291504e-01 5.838349461555480957e-01 5.651792883872985840e-01 1.265342533588409424e-01 -7.155330777168273926e-01 3.353350162506103516e-01 4.178225100040435791e-01 -3.166422247886657715e-01 -5.357745885848999023e-01 -5.233210325241088867e-01 1.091915294528007507e-01 -2.201421260833740234e+00 -2.950487375259399414e+00 1.931106150150299072e-01 -2.331368446350097656e+00 1.026129871606826782e-01 -5.167139172554016113e-01 4.852069020271301270e-01 1.386257410049438477e+00 2.211102396249771118e-01 -4.827985465526580811e-01 -1.587000131607055664e+00 -1.752794504165649414e+00 1.124382615089416504e+00 -6.504301428794860840e-01 -2.477282524108886719e+00 -6.523355245590209961e-01 -2.228938579559326172e+00 -2.631307542324066162e-01 3.548881411552429199e-01 7.721822261810302734e-01 1.058527469635009766e+00 1.335237503051757812e+00 3.063651323318481445e-01 2.404338419437408447e-01 -1.985646724700927734e+00 -1.371018867939710617e-02 6.729442477226257324e-01 1.202468633651733398e+00 -4.494672119617462158e-01 8.868055939674377441e-01 -4.442982673645019531e-01 -5.886977314949035645e-01 -3.540658056735992432e-01 -1.022414207458496094e+00 -1.101083636283874512e+00 9.860264658927917480e-01 -9.106231331825256348e-01 6.769644469022750854e-02 -1.205875039100646973e+00 -8.664945363998413086e-01 4.222522377967834473e-01 -2.322370529174804688e+00 7.764091342687606812e-02 -4.718394577503204346e-01 3.401572704315185547e-01 -1.384789109230041504e+00 1.610633730888366699e+00 5.128087401390075684e-01 -6.427252888679504395e-01 4.885685741901397705e-01 1.915244162082672119e-01 9.238062500953674316e-01 -1.634790897369384766e+00 3.987680375576019287e-01 -9.805699586868286133e-01 1.372988373041152954e-01 5.103917121887207031e-01 -1.601966768503189087e-01 2.985737323760986328e-01 -3.563392758369445801e-01 -1.039004206657409668e+00 2.614505589008331299e-01 3.370086550712585449e-01 4.604464173316955566e-01 2.811872065067291260e-01 2.121070586144924164e-02 -1.752095222473144531e+00 -8.774657845497131348e-01 5.179805159568786621e-01 -2.962508499622344971e-01 1.131359636783599854e-01 -6.883617639541625977e-01 -6.697175502777099609e-01 -2.961632013320922852e-01 -2.540316104888916016e+00 3.769583702087402344e-01 -2.207335948944091797e+00 9.161389470100402832e-01 1.239763855934143066e+00 -1.625621318817138672e-01 -1.010693550109863281e+00 9.326567053794860840e-01 6.983233094215393066e-01 6.925392150878906250e-01 -1.873942557722330093e-03 6.086318492889404297e-01 1.405303180217742920e-01 -8.096869587898254395e-01 -2.406020462512969971e-01 9.787393212318420410e-01 -7.954245209693908691e-01 -4.889859855175018311e-01 -2.842870950698852539e-01 8.508596420288085938e-01 9.226318001747131348e-01 -5.384587049484252930e-01 8.399708867073059082e-01 1.999616175889968872e-01 -1.414007186889648438e+00 2.451279312372207642e-01 2.751051187515258789e-01 -1.065442919731140137e+00 -8.598908782005310059e-01 7.903385758399963379e-01 -7.230095267295837402e-01 1.028166890144348145e+00 2.224033474922180176e-01 -5.017512440681457520e-01 -1.342055648565292358e-01 4.327969253063201904e-01 -3.833471238613128662e-01 -6.627535820007324219e-01 1.566315650939941406e+00 -6.151673197746276855e-01 -6.629300713539123535e-01 -3.551701009273529053e-01 -3.313125669956207275e-01 -8.545068502426147461e-01 -1.623960733413696289e+00 1.854079484939575195e+00 -1.324994802474975586e+00 -1.172015547752380371e+00 8.694536052644252777e-03 -4.808692038059234619e-01 -2.577911019325256348e-01 6.588125228881835938e-01 -3.681637346744537354e-02 9.531389474868774414e-01 1.009872078895568848e+00 -1.409196496009826660e+00 -9.349688887596130371e-01 2.047347426414489746e-01 -8.483234643936157227e-01 1.154260486364364624e-01 9.223574995994567871e-01 -3.391245603561401367e-01 9.206691384315490723e-01 5.897905826568603516e-01 1.391887366771697998e-01 7.706247270107269287e-02 7.889658808708190918e-01 4.529960453510284424e-02 6.908140331506729126e-02 8.708248734474182129e-01 1.660417616367340088e-01 -1.359094262123107910e+00 5.671681761741638184e-01 -2.919212281703948975e-01 5.579134821891784668e-01 2.269270829856395721e-02 -1.679557561874389648e+00 9.877004623413085938e-01 5.848918557167053223e-01 -7.424656748771667480e-01 2.164525538682937622e-01 -4.619286358356475830e-01 -1.355051517486572266e+00 5.027475953102111816e-01 7.853977084159851074e-01 -6.025893688201904297e-01 -2.461734771728515625e+00 3.952398896217346191e-01 -9.734854102134704590e-02 -1.491752505302429199e+00 -8.018941283226013184e-01 -1.479930281639099121e+00 1.231403231620788574e+00 9.247701168060302734e-01 6.476603746414184570e-01 -7.924776673316955566e-01 1.044256329536437988e+00 6.476558446884155273e-01 -1.123880386352539062e+00 -3.603149056434631348e-01 1.166078597307205200e-01 -6.298637390136718750e-01 3.887421786785125732e-01 -6.086239218711853027e-01 -3.235535025596618652e-01 -9.158939719200134277e-01 9.203004240989685059e-01 7.317882776260375977e-01 -6.831347346305847168e-01 -2.237873077392578125e-01 1.305072069168090820e+00 -9.830783009529113770e-01 -1.568347662687301636e-01 8.060160279273986816e-01 -5.094436183571815491e-02 1.230831623077392578e+00 -9.901212453842163086e-01 -1.312145113945007324e+00 1.010028600692749023e+00 -1.672568559646606445e+00 7.920967936515808105e-01 -1.572970896959304810e-01 -3.135249391198158264e-02 1.164962127804756165e-01 -6.410456299781799316e-01 8.174901604652404785e-01 -1.083813071250915527e+00 -2.327460944652557373e-01 -9.285367727279663086e-01 -1.399788498878479004e+00 1.607615828514099121e+00 -5.148561000823974609e-01 1.162037491798400879e+00 1.096171662211418152e-01 3.810203075408935547e-01 -3.724886775016784668e-01 -1.662965714931488037e-01 -2.469440400600433350e-01 8.099614977836608887e-01 5.313196778297424316e-01 -1.569562673568725586e+00 1.304740011692047119e-01 -1.516512274742126465e+00 -1.163443103432655334e-01 1.781463503837585449e+00 -3.668541610240936279e-01 5.015099048614501953e-01 8.392043113708496094e-01 1.534793734550476074e+00 -7.881873250007629395e-01 -6.845832467079162598e-01 1.256346225738525391e+00 9.385081529617309570e-01 1.404317170381546021e-01 6.950373649597167969e-01 9.485425353050231934e-01 -7.649265527725219727e-01 6.324100494384765625e-01 -3.141028583049774170e-01 5.218623876571655273e-01 9.753022789955139160e-01 1.240975260734558105e+00 -6.737687587738037109e-01 5.098726749420166016e-01 -1.341622829437255859e+00 -1.018984317779541016e-01 2.982380986213684082e-01 -9.285830706357955933e-02 6.261126399040222168e-01 -1.288683772087097168e+00 -3.677650094032287598e-01 -4.258411228656768799e-01 9.161447882652282715e-01 -7.821016907691955566e-01 7.638042569160461426e-01 4.541712254285812378e-02 -1.364937275648117065e-01 -2.259295284748077393e-01 3.679381906986236572e-01 5.597931742668151855e-01 -2.095599174499511719e-01 2.118145525455474854e-01 5.865762829780578613e-01 1.657524824142456055e+00 -1.419656038284301758e+00 -2.512485720217227936e-03 8.970896601676940918e-01 -2.695199489593505859e+00 5.049713253974914551e-01 -1.871624708175659180e+00 5.668430924415588379e-01 9.890210628509521484e-01 -2.143502473831176758e+00 3.852293789386749268e-01 -1.103993654251098633e+00 1.337946414947509766e+00 -2.537552118301391602e+00 7.013183236122131348e-01 4.588775336742401123e-01 -6.643787622451782227e-01 4.165470302104949951e-01 4.079467356204986572e-01 9.399027228355407715e-01 6.266469955444335938e-01 1.644100069999694824e+00 1.003666758537292480e+00 7.683012634515762329e-02 -4.563848674297332764e-01 -2.395483404397964478e-01 8.086582422256469727e-01 1.570697307586669922e+00 -5.589272975921630859e-01 -4.291484355926513672e-01 1.003201365470886230e+00 -1.140817999839782715e+00 9.775475859642028809e-01 -1.217787146568298340e+00 -4.255774021148681641e-01 9.765007495880126953e-01 5.093910098075866699e-01 -6.567971706390380859e-01 1.379771947860717773e+00 -1.306894063949584961e+00 1.250001229345798492e-02 -7.473017573356628418e-01 -8.662930727005004883e-01 -9.406611323356628418e-01 -5.231171250343322754e-01 1.208222985267639160e+00 1.845391094684600830e-01 2.202396988868713379e-01 4.805338978767395020e-01 8.453998565673828125e-01 -4.123789072036743164e-01 -2.229780912399291992e+00 -1.600723147392272949e+00 5.298383235931396484e-01 3.608044385910034180e-01 -6.980605125427246094e-01 1.200464248657226562e+00 -2.372238874435424805e+00 -9.484876394271850586e-01 -4.896323084831237793e-01 -1.110785722732543945e+00 -1.383894681930541992e-01 -5.446473956108093262e-01 6.991879940032958984e-01 -1.454499661922454834e-01 1.237003225833177567e-02 -9.603932499885559082e-01 -1.195945024490356445e+00 9.269374012947082520e-01 4.936029911041259766e-01 -1.618033885955810547e+00 7.343683242797851562e-01 -1.299582362174987793e+00 -1.611321449279785156e+00 3.757112920284271240e-01 3.076108396053314209e-01 -2.770098924636840820e+00 1.041556477546691895e+00 3.822152614593505859e-01 -8.963844776153564453e-01 5.544897913932800293e-01 -1.156137347221374512e+00 -4.431959390640258789e-01 -6.464514136314392090e-01 -9.892310202121734619e-02 1.099169611930847168e+00 8.463582992553710938e-01 -1.516727358102798462e-01 -6.396862864494323730e-01 -2.873856425285339355e-01 -9.583245515823364258e-01 3.304996490478515625e-01 6.970893740653991699e-01 -4.004032313823699951e-01 1.592668294906616211e+00 6.507054567337036133e-01 7.791548967361450195e-01 -1.311390846967697144e-01 1.289571672677993774e-01 -5.324416160583496094e-01 5.883596539497375488e-01 -1.849885702133178711e+00 -7.438311576843261719e-01 9.677297472953796387e-01 3.839876651763916016e-01 4.494581818580627441e-01 -1.403452038764953613e+00 6.635429859161376953e-01 8.493184447288513184e-01 6.821904182434082031e-01 -3.417556881904602051e-01 -6.906756162643432617e-01 -3.129132091999053955e-01 1.774638593196868896e-01 -3.275005519390106201e-01 4.779018759727478027e-01 8.356313705444335938e-01 4.073778390884399414e-01 -1.904187351465225220e-01 -1.671320796012878418e-01 1.619099497795104980e+00 5.187135934829711914e-01 -4.313628375530242920e-01 -3.479216098785400391e-01 4.317461848258972168e-01 -1.531673669815063477e+00 2.782962918281555176e-01 1.105427965521812439e-01 5.925887227058410645e-01 -1.094549059867858887e+00 -4.024690389633178711e-01 1.035956740379333496e+00 9.071633815765380859e-01 -3.925147652626037598e-01 3.542755544185638428e-01 -9.005480259656906128e-02 -6.536689996719360352e-01 -3.881669417023658752e-02 2.873504757881164551e-01 3.384183645248413086e-01 3.417270481586456299e-01 1.072644472122192383e+00 -2.196977853775024414e+00 8.545681834220886230e-01 3.055207431316375732e-01 2.094088196754455566e-01 -2.204595357179641724e-01 -8.433175683021545410e-01 1.273019462823867798e-01 -1.072943687438964844e+00 6.218062639236450195e-01 -9.689863920211791992e-01 -1.872645765542984009e-01 9.270960092544555664e-01 -8.374722599983215332e-01 -1.039425730705261230e+00 -1.521688103675842285e+00 7.845103144645690918e-01 -6.573705673217773438e-01 1.256823062896728516e+00 -1.063910841941833496e+00 3.357376158237457275e-01 -1.205841541290283203e+00 7.573332786560058594e-01 1.397427439689636230e+00 -2.248810380697250366e-01 -2.226885080337524414e+00 -1.066282093524932861e-01 -9.488910436630249023e-01 5.990005135536193848e-01 -4.651899337768554688e-01 4.615712165832519531e-01 6.015408039093017578e-01 -2.373008251190185547e+00 1.246906042098999023e+00 -1.932909846305847168e+00 -9.281206727027893066e-01 7.455949783325195312e-01 -3.354977667331695557e-01 5.592505335807800293e-01 -2.049317836761474609e+00 1.040382146835327148e+00 9.863299876451492310e-02 -2.624456405639648438e+00 1.286890268325805664e+00 1.749784499406814575e-01 -6.123065948486328125e-01 -1.336331844329833984e+00 8.901343345642089844e-01 2.990217506885528564e-01 8.567562103271484375e-01 -5.732175111770629883e-01 -8.166492581367492676e-01 -1.577467471361160278e-01 1.134964674711227417e-01 1.267727136611938477e+00 8.537497520446777344e-01 -1.831572055816650391e-01 7.109137177467346191e-01 2.627529203891754150e-01 4.966451972723007202e-02 -2.043694257736206055e+00 -9.577599167823791504e-01 8.960050940513610840e-01 -1.581210047006607056e-01 -2.313034534454345703e+00 2.901301085948944092e-01 9.731105566024780273e-01 6.460365056991577148e-01 1.858436465263366699e+00 6.421586275100708008e-01 -3.255204856395721436e-01 -1.486771225929260254e+00 1.027657508850097656e+00 -1.133867144584655762e+00 2.332652956247329712e-01 -9.550760984420776367e-01 6.767069548368453979e-02 1.000856086611747742e-01 5.950919985771179199e-01 -2.031266450881958008e+00 -1.697986602783203125e+00 6.527598202228546143e-02 5.196376442909240723e-01 4.349981844425201416e-01 -5.369624495506286621e-01 6.008324623107910156e-01 -2.115774601697921753e-01 -2.510225296020507812e+00 1.031381011009216309e+00 -7.279950380325317383e-01 -1.601324081420898438e-01 8.096692711114883423e-02 -8.611652851104736328e-01 6.449279785156250000e-01 1.125158667564392090e+00 -5.649365186691284180e-01 5.835762023925781250e-01 1.188456177711486816e+00 1.061602592468261719e+00 -5.364325046539306641e-01 4.978225100785493851e-03 9.995239228010177612e-02 -9.640235900878906250e-01 -5.378690734505653381e-02 5.615421384572982788e-02 -4.890325665473937988e-01 -2.915581226348876953e+00 -1.741880476474761963e-01 1.315667033195495605e+00 9.708659052848815918e-01 7.884092330932617188e-01 7.968832850456237793e-01 1.011693716049194336e+00 4.405451416969299316e-01 1.032613277435302734e+00 6.572867035865783691e-01 6.267462372779846191e-01 1.801076233386993408e-01 -1.669675558805465698e-01 -3.564142584800720215e-01 -2.290783643722534180e+00 -4.278776422142982483e-02 -6.846371293067932129e-01 -3.491288721561431885e-01 1.162989020347595215e+00 -1.772330760955810547e+00 -6.869586706161499023e-01 -1.607397198677062988e+00 1.163216680288314819e-02 9.592666625976562500e-01 -1.244731172919273376e-01 -9.029619693756103516e-01 -3.036380767822265625e+00 5.814580246806144714e-02 -8.568797111511230469e-01 -2.231221199035644531e+00 3.283859491348266602e-01 -4.975939095020294189e-01 2.199721336364746094e-01 -2.104547739028930664e+00 -1.494977355003356934e+00 7.886217236518859863e-01 6.312002539634704590e-01 -2.488027334213256836e+00 5.594871044158935547e-01 3.793958127498626709e-01 -1.492151141166687012e+00 -8.616000413894653320e-01 -2.009076178073883057e-01 -6.188233494758605957e-01 8.041117787361145020e-01 -1.265323348343372345e-02 1.439104676246643066e+00 5.225502252578735352e-01 -1.397340059280395508e+00 5.438425540924072266e-01 -1.624695897102355957e+00 5.236624479293823242e-01 4.776953756809234619e-01 1.686613857746124268e-01 -1.174278378486633301e+00 -1.099336147308349609e+00 -1.558058857917785645e-01 -2.517908997833728790e-02 -8.032426238059997559e-01 1.420583605766296387e+00 4.148179590702056885e-01 7.014408111572265625e-01 -1.970832236111164093e-02 -1.331957340240478516e+00 8.722380399703979492e-01 -2.531675338745117188e+00 3.666209280490875244e-01 -1.008108139038085938e+00 1.073169827461242676e+00 4.255679547786712646e-01 5.252042412757873535e-01 -7.381016016006469727e-01 -5.047888159751892090e-01 6.604708433151245117e-01 -1.480811357498168945e+00 -5.974444150924682617e-01 -1.197305798530578613e+00 2.263650745153427124e-01 3.240961432456970215e-01 -5.465672016143798828e-01 -1.520532846450805664e+00 -8.953790664672851562e-01 -8.615438640117645264e-02 -7.517277598381042480e-01 1.307076454162597656e+00 6.922701001167297363e-01 -6.252328157424926758e-01 5.812422037124633789e-01 2.322580665349960327e-01 -3.776561319828033447e-01 4.506022632122039795e-01 6.458493471145629883e-01 -1.458725094795227051e+00 2.805358469486236572e-01 9.241927862167358398e-01 -5.783861503005027771e-02 -1.067596554756164551e+00 -1.920097619295120239e-01 5.669820308685302734e-01 -6.521182060241699219e-01 3.736029863357543945e-01 -1.432554841041564941e+00 9.813780784606933594e-01 1.364144563674926758e+00 6.651011705398559570e-01 -2.970250129699707031e+00 5.159716010093688965e-01 -1.129739046096801758e+00 -1.797927021980285645e+00 -2.650047838687896729e-01 8.483991026878356934e-01 -2.315932363271713257e-01 7.028512954711914062e-01 -1.056932687759399414e+00 7.346921563148498535e-01 -8.218125104904174805e-01 -3.785932902246713638e-03 -2.214068412780761719e+00 -3.477368056774139404e-01 -7.349984645843505859e-01 -5.031247138977050781e-01 2.410169132053852081e-02 -1.641895055770874023e+00 1.036599755287170410e+00 3.190165758132934570e-01 -7.004195451736450195e-01 -3.203684389591217041e-01 5.709340572357177734e-01 2.927868366241455078e-01 -1.679224252700805664e+00 -5.243483185768127441e-01 2.739167809486389160e-01 -1.297485381364822388e-01 -3.168825626373291016e+00 7.010130882263183594e-01 -2.357919961214065552e-01 -5.284209847450256348e-01 3.869871199131011963e-01 5.416554212570190430e-01 6.583711504936218262e-01 -1.272024512290954590e+00 1.003215074539184570e+00 7.949601411819458008e-01 -7.000875473022460938e-01 -4.452781975269317627e-01 8.017688989639282227e-01 -1.555232852697372437e-01 1.395404696464538574e+00 -6.508426666259765625e-01 -8.476417064666748047e-01 7.000555992126464844e-01 1.005164504051208496e+00 -1.560801523737609386e-03 -5.467085242271423340e-01 -1.607092380523681641e+00 4.102437198162078857e-02 -4.896495640277862549e-01 1.109331727027893066e+00 -1.062352210283279419e-01 -1.964460730552673340e+00 -1.495535731315612793e+00 2.915306575596332550e-02 8.351239562034606934e-01 -4.416144490242004395e-01 3.491911590099334717e-01 8.638113737106323242e-01 1.046561598777770996e-01 5.133237838745117188e-01 4.207756519317626953e-01 6.808759570121765137e-01 9.930343031883239746e-01 2.043329328298568726e-01 -7.836198806762695312e-01 6.968877315521240234e-01 3.773677349090576172e-01 2.575551271438598633e-01 8.507062196731567383e-01 1.286209106445312500e+00 5.062612295150756836e-01 2.749345004558563232e-01 6.238225102424621582e-01 9.809707999229431152e-01 -1.998915910720825195e+00 1.379072666168212891e+00 -1.474074721336364746e-01 -2.509706020355224609e-01 -1.369218945503234863e+00 9.624040126800537109e-01 8.278225064277648926e-01 5.973179340362548828e-01 -7.339570522308349609e-01 -4.794186353683471680e-01 -1.673592370934784412e-03 5.143794417381286621e-01 1.784006357192993164e-01 1.384413599967956543e+00 -1.746310591697692871e-01 -7.449801564216613770e-01 -1.363221287727355957e+00 7.242932915687561035e-01 -5.777906179428100586e-01 -1.164687037467956543e+00 5.056467056274414062e-01 6.428124904632568359e-01 7.570117712020874023e-01 -2.282095432281494141e+00 1.704946509562432766e-03 5.377284288406372070e-01 1.022482514381408691e-01 -7.825114130973815918e-01 1.753430485725402832e+00 1.601407170295715332e+00 -1.763784170150756836e+00 1.474179148674011230e+00 -2.514694929122924805e-01 -7.640496492385864258e-01 3.132020235061645508e-01 4.312390089035034180e-01 -5.567238330841064453e-01 1.530574560165405273e-01 1.445360630750656128e-01 -6.959571689367294312e-02 -3.673156976699829102e+00 2.089768052101135254e-01 4.794528186321258545e-01 9.301203489303588867e-01 1.149987816810607910e+00 1.028627276420593262e+00 5.635777115821838379e-01 -1.259959816932678223e+00 -1.721765398979187012e+00 -2.664803504943847656e+00 -1.850961923599243164e+00 -2.644322633743286133e+00 8.147736638784408569e-02 2.633076012134552002e-01 -3.702009916305541992e-01 -1.036236763000488281e+00 9.607990384101867676e-01 -1.239148974418640137e+00 -1.296938300132751465e+00 5.855259895324707031e-01 -5.579871535301208496e-01 2.623528838157653809e-01 2.703324556350708008e-01 8.227683305740356445e-01 -1.092816114425659180e+00 -5.849992632865905762e-01 6.780256628990173340e-01 -9.291217327117919922e-01 -3.121655881404876709e-01 7.742118239402770996e-01 -1.898197293281555176e+00 1.990158557891845703e-01 -1.619688868522644043e+00 9.326016902923583984e-02 -1.582051515579223633e+00 -6.447805762290954590e-01 -1.290663599967956543e+00 -1.333015441894531250e+00 -1.093261986970901489e-01 -7.327024936676025391e-01 6.169171333312988281e-01 -1.922215104103088379e+00 2.043092101812362671e-01 -5.502884984016418457e-01 6.794307827949523926e-01 -1.229022264480590820e+00 -1.003084540367126465e+00 4.779157340526580811e-01 1.208775937557220459e-01 1.664285361766815186e-01 8.033456206321716309e-01 -1.350555300712585449e+00 -5.064741373062133789e-01 3.101935386657714844e-01 1.552865624427795410e+00 -9.987030923366546631e-02 -1.659033596515655518e-01 -3.520491600036621094e+00 3.605543449521064758e-02 -2.617474086582660675e-02 1.023832917213439941e+00 1.171904087066650391e+00 8.137884140014648438e-01 3.472990691661834717e-01 7.172415405511856079e-02 -3.108718395233154297e+00 -9.807376265525817871e-01 -4.806069433689117432e-01 8.913418054580688477e-01 2.167243808507919312e-01 9.530093073844909668e-01 3.058850169181823730e-01 -1.469859004020690918e+00 -6.958061456680297852e-01 -8.449049592018127441e-01 1.524458527565002441e-01 -2.942907623946666718e-02 8.317106366157531738e-01 1.622137129306793213e-01 1.463655531406402588e-01 2.497063577175140381e-01 -6.380186676979064941e-01 -1.207964494824409485e-03 -2.398082494735717773e+00 4.492643177509307861e-01 -1.515338063240051270e+00 -2.255139946937561035e-01 -7.660789489746093750e-01 6.976671218872070312e-01 -1.609912633895874023e+00 6.564363837242126465e-01 3.908759951591491699e-01 -1.594248890876770020e+00 -2.280909776687622070e+00 -1.231758952140808105e+00 1.324717402458190918e+00 2.374722957611083984e-01 -1.432637214660644531e+00 -5.127870440483093262e-01 -8.092176318168640137e-01 3.881649672985076904e-01 7.458007931709289551e-01 -3.329844474792480469e-01 -7.069398462772369385e-02 6.591287255287170410e-01 7.722105830907821655e-02 1.310317516326904297e-01 1.155993819236755371e+00 1.018597364425659180e+00 -6.860007047653198242e-01 2.202007174491882324e-02 -2.947991341352462769e-02 -2.352356314659118652e-01 -9.377997517585754395e-01 -1.998864412307739258e+00 1.202663660049438477e+00 1.593543648719787598e+00 6.079907417297363281e-01 4.000114202499389648e-01 -7.881335020065307617e-01 1.589518427848815918e+00 1.546151995658874512e+00 -1.135416507720947266e+00 3.848412930965423584e-01 8.306192159652709961e-01 1.635705120861530304e-02 -1.306057721376419067e-01 -9.927383661270141602e-01 -5.369644165039062500e-01 1.337399005889892578e+00 7.084687352180480957e-01 5.722819566726684570e-01 1.854889392852783203e-01 5.746722221374511719e-01 -4.618119299411773682e-01 2.809556424617767334e-01 3.281865119934082031e-01 8.214962482452392578e-01 4.085085093975067139e-01 7.019299864768981934e-01 1.269512474536895752e-01 -1.554764866828918457e+00 -1.242101490497589111e-01 -7.165371179580688477e-01 -2.579448521137237549e-01 -2.879610359668731689e-01 2.507106363773345947e-01 8.329551815986633301e-01 -8.350828886032104492e-01 -1.188214540481567383e+00 -1.191307425498962402e+00 2.093275636434555054e-01 1.556839197874069214e-01 1.087239265441894531e+00 -2.865144908428192139e-01 8.638095855712890625e-01 1.245000839233398438e+00 -3.716797530651092529e-01 6.409608721733093262e-01 -1.565763235092163086e+00 1.292071580886840820e+00 1.006175279617309570e+00 3.637759983539581299e-01 -6.512519717216491699e-01 -9.302253723144531250e-01 -1.054947137832641602e+00 4.710500538349151611e-01 1.379090070724487305e+00 -5.232949256896972656e-01 5.299024581909179688e-01 -1.348218560218811035e+00 6.068268045783042908e-02 -1.124122262001037598e+00 -9.157963991165161133e-01 -1.505142897367477417e-01 1.506728976964950562e-01 -7.615017890930175781e-01 1.541907191276550293e-01 -1.346307635307312012e+00 1.847260445356369019e-01 1.096380591392517090e+00 1.001021265983581543e+00 7.973443269729614258e-01 -1.024565935134887695e+00 -6.106164455413818359e-01 4.101448953151702881e-01 -1.522451639175415039e+00 7.470856308937072754e-01 4.555947780609130859e-01 -2.034656763076782227e+00 1.335089564323425293e+00 -2.175349712371826172e+00 -1.452314853668212891e+00 -2.948933243751525879e-01 3.101290464401245117e-01 6.276897192001342773e-01 -2.187582969665527344e+00 -7.383695840835571289e-01 3.174521923065185547e-01 5.087808370590209961e-01 7.565399408340454102e-01 -8.021594882011413574e-01 -2.536593675613403320e-01 -7.332331538200378418e-01 1.041612029075622559e-01 4.610503017902374268e-01 -1.192566394805908203e+00 -2.230102717876434326e-01 -1.184080690145492554e-01 2.218326777219772339e-01 6.287137269973754883e-01 2.599866092205047607e-01 -2.243016481399536133e+00 1.227742075920104980e+00 -7.881163358688354492e-01 -2.000180006027221680e+00 -2.454291582107543945e-01 -7.822424769401550293e-01 1.420848965644836426e+00 -6.800924539566040039e-01 -6.455976963043212891e-01 7.205726504325866699e-01 -3.932144939899444580e-01 -1.170275330543518066e+00 2.178280502557754517e-01 8.993241935968399048e-03 -1.024578511714935303e-01 1.147189021110534668e+00 3.030009008944034576e-02 4.850036799907684326e-01 1.407109498977661133e+00 6.204134225845336914e-01 7.029361724853515625e-01 -1.148832678794860840e+00 1.806470006704330444e-01 -5.611231923103332520e-01 1.510483145713806152e+00 2.702417671680450439e-01 -1.350764513015747070e+00 -7.607838511466979980e-01 1.627259731292724609e+00 2.842033840715885162e-02 1.176899909973144531e+00 9.408726692199707031e-01 6.791985034942626953e-01 -2.043844610452651978e-01 -4.994370788335800171e-02 -3.817161619663238525e-01 -2.790427446365356445e+00 -1.116922736167907715e+00 -1.363899946212768555e+00 -5.465582013130187988e-01 -2.327646613121032715e-01 5.619202852249145508e-01 5.953624844551086426e-01 8.542237281799316406e-01 -3.196283817291259766e+00 -1.182088136672973633e+00 1.135771751403808594e+00 -8.863663673400878906e-01 3.274570703506469727e-01 -1.384847044944763184e+00 3.632443547248840332e-01 -3.853341937065124512e-01 -1.148674368858337402e+00 -7.088883519172668457e-01 -1.382966876029968262e+00 -1.089007109403610229e-01 8.752785921096801758e-01 4.510781466960906982e-01 5.535534620285034180e-01 3.767302334308624268e-01 4.618141055107116699e-01 3.451069444417953491e-02 -3.983288407325744629e-01 -2.134759873151779175e-01 -2.426459312438964844e+00 -4.577898681163787842e-01 6.375625133514404297e-01 5.781301856040954590e-02 1.294333785772323608e-01 -2.172737121582031250e+00 -1.544301033020019531e+00 8.739020824432373047e-01 -6.828525662422180176e-01 8.185867071151733398e-01 7.410616874694824219e-01 7.738949656486511230e-01 9.187234938144683838e-02 -2.093225717544555664e+00 5.714681744575500488e-01 6.759188771247863770e-01 -1.287600994110107422e-01 4.209645986557006836e-01 8.633521795272827148e-01 -1.346919536590576172e+00 1.785236895084381104e-01 5.988002419471740723e-01 2.749320566654205322e-01 -7.563610672950744629e-01 9.143809080123901367e-01 1.072914838790893555e+00 1.274673342704772949e+00 -4.009032547473907471e-01 -8.315182477235794067e-02 6.339892745018005371e-01 -5.406320095062255859e-01 -1.046201229095458984e+00 -3.248368740081787109e+00 -1.237666130065917969e+00 -1.171811461448669434e+00 8.840119838714599609e-01 3.907124400138854980e-01 -1.007611036300659180e+00 4.256336688995361328e-01 2.384697087109088898e-02 -5.438680201768875122e-02 -1.260258197784423828e+00 -9.272651672363281250e-01 -7.915224134922027588e-02 -1.805005073547363281e+00 -8.651891350746154785e-01 3.608530461788177490e-01 6.456153392791748047e-01 -4.068221151828765869e-01 4.724969863891601562e-01 -7.673413157463073730e-01 3.807190060615539551e-01 -1.066865682601928711e+00 3.473496437072753906e-01 3.364454507827758789e-01 2.177556753158569336e-01 8.456661105155944824e-01 4.254095256328582764e-01 -8.983486890792846680e-02 -9.046937823295593262e-01 1.403422206640243530e-01 -1.492461919784545898e+00 2.593191266059875488e-01 9.749841094017028809e-01 -4.874135926365852356e-02 -2.021943330764770508e+00 -1.430400967597961426e+00 7.336964607238769531e-01 1.133643865585327148e+00 -2.131794452667236328e+00 2.251762896776199341e-01 6.290431022644042969e-01 6.876075267791748047e-01 -4.336889386177062988e-01 -2.197866916656494141e+00 5.655370950698852539e-01 7.705041170120239258e-01 2.453195452690124512e-01 -2.666279971599578857e-01 -1.595426559448242188e+00 8.302551507949829102e-01 -1.130587458610534668e+00 -7.797308564186096191e-01 -1.251213312149047852e+00 5.636608004570007324e-01 -6.540670990943908691e-01 8.129177689552307129e-01 1.044034883379936218e-01 -5.408700704574584961e-01 1.162913203239440918e+00 -7.192860543727874756e-02 8.903936147689819336e-01 -1.124179124832153320e+00 -4.432688355445861816e-01 -3.744906485080718994e-01 3.702981173992156982e-01 -2.356114387512207031e-01 -2.446433603763580322e-01 -8.314173221588134766e-01 7.937105894088745117e-01 -3.998848915100097656e+00 -9.273672103881835938e-01 1.222183823585510254e+00 -1.072046995162963867e+00 -1.226221680641174316e+00 -1.671157240867614746e+00 7.896720170974731445e-01 -1.235287547111511230e+00 1.204351067543029785e+00 -1.364433288574218750e+00 1.541609466075897217e-01 2.005646824836730957e-01 -2.011070251464843750e+00 2.073002755641937256e-01 -1.084009647369384766e+00 1.258720308542251587e-01 -7.430635094642639160e-01 2.112364023923873901e-01 -1.355077475309371948e-01 -3.705513477325439453e-01 -1.116238474845886230e+00 9.121642708778381348e-01 4.338264763355255127e-01 1.378448158502578735e-01 -8.740332722663879395e-01 1.003275632858276367e+00 6.877285428345203400e-03 -1.614041805267333984e+00 -2.026993185281753540e-01 1.547326743602752686e-01 -9.342766404151916504e-01 3.340328037738800049e-01 6.908608973026275635e-02 4.148066639900207520e-01 -1.139751434326171875e+00 -7.022131085395812988e-01 3.288473784923553467e-01 -5.708203911781311035e-01 1.557538211345672607e-01 2.749199569225311279e-01 -1.530581593513488770e+00 -9.862676858901977539e-01 1.078877568244934082e+00 5.454217791557312012e-01 3.866497278213500977e-01 6.583827733993530273e-01 -2.476052761077880859e+00 3.874379694461822510e-01 -3.998856842517852783e-01 -2.629047155380249023e+00 -3.854018747806549072e-01 -3.945053368806838989e-02 6.819764375686645508e-01 6.692166328430175781e-01 -1.180865168571472168e+00 4.309763312339782715e-01 -3.129840493202209473e-01 1.095429658889770508e-01 1.780092865228652954e-01 3.083765506744384766e-01 8.147489428520202637e-01 -1.368646740913391113e+00 -1.230395883321762085e-01 8.141613006591796875e-01 4.350173473358154297e-01 -5.016608163714408875e-02 -2.391963750123977661e-01 7.805803418159484863e-01 9.354593157768249512e-01 5.081735253334045410e-01 -1.016473650932312012e+00 -1.789601445198059082e+00 1.035840868949890137e+00 6.625635027885437012e-01 1.037881016731262207e+00 1.408791661262512207e+00 -1.650180816650390625e+00 -1.114717841148376465e+00 -1.586576581001281738e+00 9.110026992857456207e-03 -1.118666768074035645e+00 5.507098436355590820e-01 1.430425167083740234e+00 1.666285246610641479e-01 -6.332176923751831055e-01 1.567569002509117126e-02 1.684447079896926880e-01 -1.273114204406738281e+00 -2.042087316513061523e+00 4.696514010429382324e-01 -7.224851846694946289e-01 -4.359861090779304504e-02 -2.437494099140167236e-01 6.904121041297912598e-01 1.430727839469909668e+00 3.717328011989593506e-01 -6.669596433639526367e-01 -7.972998917102813721e-02 -1.196343421936035156e+00 3.977354764938354492e-01 4.152911305427551270e-01 -7.893643379211425781e-01 1.078912615776062012e+00 6.277576088905334473e-01 -1.762534022331237793e+00 1.004237413406372070e+00 9.663784503936767578e-01 -6.417047977447509766e-01 -2.312200069427490234e-01 -5.775612592697143555e-01 5.652447342872619629e-01 -5.099537372589111328e-01 -5.011093020439147949e-01 1.407947659492492676e+00 -2.882635354995727539e+00 7.211332917213439941e-01 -1.382643103599548340e+00 -3.085748106241226196e-02 2.534523308277130127e-01 -5.370449647307395935e-02 -1.132200479507446289e+00 6.228430867195129395e-01 8.961002826690673828e-01 6.026207208633422852e-01 -5.723514556884765625e-01 -8.902775496244430542e-02 -1.817132711410522461e+00
