3.241973817348480225e-01 1.786791160702705383e-02 5.955329537391662598e-01 -1.665929257869720459e-01 -2.077877283096313477e+00 2.710020244121551514e-01 2.621212899684906006e-01 5.147541686892509460e-02 9.177139401435852051e-01 -5.655515789985656738e-01 -6.624350547790527344e-01 -1.302308320999145508e+00 5.109849572181701660e-01 1.541953802108764648e+00 -1.309677064418792725e-01 1.157717704772949219e+00 1.520653486251831055e+00 -3.184684216976165771e-01 6.298767030239105225e-02 1.405606150627136230e+00 1.198880314826965332e+00 9.696549177169799805e-01 2.399844169616699219e+00 -5.039193853735923767e-02 1.656688928604125977e+00 7.336722612380981445e-01 -8.672488927841186523e-01 -1.780397295951843262e-01 9.571421146392822266e-02 -3.332191705703735352e-01 5.708702206611633301e-01 2.605352640151977539e+00 5.218586921691894531e-01 -8.049285411834716797e-01 -8.290754258632659912e-02 -1.034488916397094727e+00 -1.249050498008728027e+00 -8.825062513351440430e-01 -6.833758354187011719e-01 -7.354236841201782227e-01 -1.535247325897216797e+00 -8.418331146240234375e-01 -2.122604101896286011e-02 7.021505832672119141e-01 4.735751152038574219e-01 -4.829849898815155029e-01 2.434129267930984497e-01 7.661249637603759766e-01 -3.060731589794158936e-01 -1.695268154144287109e+00 -1.710099458694458008e+00 9.934200048446655273e-01 6.381967067718505859e-01 -5.700267553329467773e-01
